{
	"freq_ku_chd": {
		"value": 13575097717.8047,
 		"description": "Emitted frequency in Ku-band",
 		"units": "Hz"
 	},
 	"freq_c_chd": {
		"value": 5410000000.0,
 		"description": "Emitted frequency in C-band",
 		"units": "Hz"
 	},
	"bw_ku_chd": {
		"value": 320000000.0,
	 	"description": "Ku-band bandwidth",
	 	"units": "Hz"
	},
	"bw_c_chd": {
		"value": 320000000.0,
		"description": "C-band bandwidth",
		"units": "Hz"
	},
	"mean_sat_alt_chd": {
		"value": 1347000.0,
		"description": "Mean satellite altitude",
		"units": "m"
	},


	"N_bursts_cycle_chd": {
		"value": 7,
		"description": "Number of bursts in a tracking cycle",
		"units": null
	},
	"N_ku_pulses_rc_chd": {
		"value": 448,
		"description": "Number of Ku-band pulses in a radar cycle",
		"units": null
	},
	"N_c_pulses_rc_chd": {
		"value": 7,
		"description": "Number of C-band pulses in a radar cycle",
		"units": null
	},
	"N_ku_pulses_burst_chd": {
		"value": 64,
		"description": "Number of Ku-band pulses per burst",
		"units": null
	},
	"N_c_pulses_burst_chd": {
		"value": 1,
		"description": "Number of C-band pulses per burst",
		"units": null
	},
	"N_cal_pulses_burst_chd": {
		"value": 1,
		"description": "Number of Calibration pulses per burst",
		"units": null
	},
	"N_samples_lrm_chd": {
		"value": 256,
		"description": "Number of samples per each LRM pulse",
		"units": null
	},
	"N_samples_sar_chd": {
		"value": 256,
		"description": "Number of samples per each SAR pulse",
		"units": null
	},
	"pulse_length_chd": {
		"value": 0.000032,
		"description": "Pulse length",
		"units": "s"
	},
	"tx1_lrm_chd": {
		"value": 0.0,
		"description": "Time characterised on ground to shift the telemetered time to the previous transmitted pulse in LRM mode",
		"units": "s"
	},
	"tx1_sar_chd": {
		"value": 0.0,
		"description": "Time characterised on ground to shift the telemetered time to the previous transmitted pulse in SAR mode",
		"units": "s"
	},
	"fai_shift_number_chd": {
		"value": 1024,
		"description": "Number of fai shifts to complete one sample in LRM and SAR science waveforms",
		"units": null
	},


	"x_ant_chd": {
		"value": 1.530,
		"description": "Antenna X component in the satellite reference frame",
		"units": "m"
	},
	"y_ant_chd": {
		"value": 0.005,
		"description": "Antenna Y component in the satellite reference frame",
		"units": "m"
	},
	"z_ant_chd": {
		"value": 0.039,
		"description": "Antenna Z component in the satellite reference frame",
		"units": "m"
	},
	"x_cog_chd": {
		"value": 1.530,
		"description": "Center of Gravity X component in the satellite reference frame",
		"units": "m"
	},
	"y_cog_chd": {
		"value": 0.005,
		"description": "Center of Gravity Y component in the satellite reference frame",
		"units": "m"
	},
	"z_cog_chd": {
		"value": 0.039,
		"description": "Center of Gravity Z component in the satellite reference frame",
		"units": "m"
	},


	"pitch_bias_chd": {
		"value": 0,
		"description": "Pitch bias measured in-flight",
		"units": "rad"
	},
	"roll_bias_chd": {
		"value": 0,
		"description": "Roll bias measured in-flight",
		"units": "rad"
	},
	"yaw_bias_chd": {
		"value": 0,
		"description": "Yaw bias measured in-flight",
		"units": "rad"
	},


	"antenna_gain_ku_chd": {
		"value": 42.1,
		"description": "Antenna gain for Ku-band",
		"units": "dB"
	},
	"antenna_gain_c_chd": {
		"value": 33.6,
		"description": "Antenna gain for C-band",
		"units": "dB"
	},
	"antenna_beamwidth_ku_chd": {
		"value": 1.35,
		"description": "Antenna beamwidth at 3 dB for Ku-band",
		"units": "deg"
	},
	"antenna_beamwidth_c_chd": {
		"value": 3.4,
		"description": "Antenna beamwidth at 3 dB for C-band",
		"units": "deg"
	},


	"attcode_ground_cal1_lrm_ku_chd": {
		"value": 0,
		"description": "Calibration ATT code for CAL1 LRM Ku measured on ground",
		"un1its": null
	},
	"attcode_ground_cal1_lrm_c_chd": {
		"value": 0,
		"description": "Calibration ATT code for CAL1 C Ku measured on ground",
		"units": null
	},
	"attcode_ground_cal1_sar_ku_chd": {
		"value": 0,
	 	"description": "Calibration ATT code for CAL1 SAR Ku measured on ground",
	 	"units": null
	},
	"attcode_ground_cal1_sar_c_chd": {
		"value": 0,
		"description": "Calibration ATT code for CAL1 SAR C measured on ground",
		"units": null
	},
	"fine_shift_number_chd": {
		"value": 64,
		"description": "Number of fine shifts to complete one sample in CAL1 LRM waveforms",
		"units": null
	},
	"total_power_ref_ground_cal1_lrm_ku_chd": {
		"value": 49.0,
		"description": "Total power of the PTR (CAL1 LRM Ku) waveform measured on ground",
		"units": "dB"
	},
	"total_power_ref_ground_cal1_lrm_c_chd": {
		"value": 49.0,
		"description": "Total power of the PTR (CAL1 LRM C) waveform measured on ground",
		"units": "dB"
	},
	"total_power_ref_ground_cal1_sar_ku_chd": {
		"value": 49.0,
		"description": "Total power of the PTR (CAL1 SAR Ku) waveform measured on ground",
		"units": "dB"
	},
	"total_power_ref_ground_cal1_sar_c_chd": {
		"value": 49.0,
		"description": "Total power of the PTR (CAL1 SAR C) waveform measured on ground",
		"units": "dB"
	},
	"max_power_ref_ground_cal1_lrm_ku_chd": {
		"value": 48.0,
	 	"description": "Maximum power of the PTR (CAL1 LRM Ku) waveform measured on ground",
	 	"units": "dB"
	},
	"max_power_ref_ground_cal1_lrm_c_chd": {
		"value": 48.0,
	 	"description": "Maximum power of the PTR (CAL1 LRM C) waveform measured on ground",
	 	"units": "dB"
	},
	"max_power_ref_ground_cal1_sar_ku_chd": {
		"value": 48.0,
		"description": "Maximum power of the PTR (CAL1 SAR Ku) waveform measured on ground",
		"units": "dB"
	},
	"max_power_ref_ground_cal1_sar_c_chd": {
		"value": 48.0,
		"description": "Maximum power of the PTR (CAL1 SAR C) waveform measured on ground",
		"units": "dB"
	},


	"ext_delay_ground_ku_chd": {
		"value": 0.000000001,
		"description": "External delay between the duplexor and the antenna measured on ground (Ku-band)",
		"units": "s"
	},
	"ext_delay_ground_c_chd": {
		"value": 0.000000001,
		"description": "External delay between the duplexor and the antenna measured on ground (C-band)",
		"units": "s"
	},
	"int_delay_ground_cal1_lrm_ku_chd": {
		"value": 0.000000007,
		"description": "Internal delay of the PTR (CAL1 LRM Ku) waveform measured on ground",
		"units": "s"
	},
	"int_delay_ground_cal1_lrm_c_chd": {
		"value": 0.000000007,
		"description": "Internal delay of the PTR (CAL1 LRM C) waveform measured on ground",
		"units": "s"
	},
	"int_delay_ground_cal1_sar_ku_chd": {
		"value": 0.000000007,
		"description": "Internal delay of the PTR (CAL1 SAR Ku) waveform measured on ground",
		"units": "s"
	},
	"int_delay_ground_cal1_sar_c_chd": {
		"value": 0.000000007,
		"description": "Internal delay of the PTR (CAL1 SAR C) waveform measured on ground",
		"units": "s"
	},


	"rfu_rx_gain_ground_chd": {
		"value": 95,
		"description": "Combination of RFU gains in the receiving chain",
		"units": "dB"
	},
	"onboard_proc_lrm_ku_chd": {
		"value": 93.6,
		"description": "Combination of on-board fixed digital gains for the LRM Ku-band digital chain from ADC converter to TM (it includes ADC, FFTs, alpha)",
	 	"units": "dB"
	},
	"onboard_proc_lrm_c_chd": {
		"value": 87.5,
		"description": "Combination of on-board fixed digital gains for the LRM C-band digital chain from ADC converter to TM (it includes ADC, FFTs, alpha)",
	 	"units": "dB"
	},
	"onboard_proc_sar_raw_chd": {
		"value": 60.0,
		"description": "Combination of on-board fixed digital gains for the SAR Raw digital chain from ADC converter to TM (it includes ADC, FFTs, beta)",
	 	"units": "dB"
	},
	"onboard_proc_sar_rmc_chd": {
		"value": 41.938,
	 	"description": "Combination of on-board fixed digital gains for the SAR RMC digital chain from ADC converter to TM (it includes ADC, FFTs, delta)",
	 	"units": "dB"
	},
	"onboard_proc_lrm_ku_cal1_chd": {
		"value": 93.6,
		"description": "Combination of on-board fixed digital gains for the CAL1 LRM Ku-band digital chain from ADC converter to TM (it includes ADC, FFTs, alpha)",
	 	"units": "dB"
	},
	"onboard_proc_lrm_c_cal1_chd": {
		"value": 87.5,
	 	"description": "Combination of on-board fixed digital gains for the CAL1 LRM C-band digital chain from ADC converter to TM (it includes ADC, FFTs, alpha)",
	 	"units": "dB"
	},
	"onboard_proc_sar_ku_cal1_chd": {
		"value": 60.0,
		"description": "Combination of on-board fixed digital gains for the CAL1 SAR Ku digital chain from ADC converter to TM (it includes ADC, FFTs, beta)",
	 	"units": "dB"
	},
	"onboard_proc_sar_c_cal1_chd": {
		"value": 60.0,
	 	"description": "Combination of on-board fixed digital gains for the CAL1 SAR C digital chain from ADC converter to TM (it includes ADC, FFTs, beta)",
	 	"units": "dB"
	},
	"onboard_proc_pulse_cal1_chd": {
		"value": 60.0,
	 	"description": "Combination of on-board fixed digital gains for the CAL1 Pulse digital chain from ADC converter to TM (it includes ADC, FFTs, beta)",
	 	"units": "dB"
	},
	"onboard_proc_lrm_ku_cal1_ref_chd": {
		"value": 93.6,
	 	"description": "Combination of fixed digital gains for the CAL1 LRM Ku-band digital chain from ADC converter to TM (it includes ADC, FFTs, alpha) measured on-ground",
	 	"units": "dB"
	},
	"onboard_proc_lrm_c_cal1_ref_chd": {
		"value": 87.5,
		"description": "Combination of fixed digital gains for the CAL1 LRM C-band digital chain from ADC converter to TM (it includes ADC, FFTs, alpha) measured on-ground",
		"units": "dB"
	},
	"onboard_proc_sar_ku_cal1_ref_chd": {
		"value": 60.0,
		"description": "Combination of fixed digital gains for the CAL1 SAR Ku digital chain from ADC converter to TM (it includes ADC, FFTs, beta) measured on-ground",
		"units": "dB"
	},
	"onboard_proc_sar_c_cal1_ref_chd": {
		"value": 60.0,
		"description": "Combination of fixed digital gains for the CAL1 SAR C digital chain from ADC converter to TM (it includes ADC, FFTs, beta) measured on-ground",
	 	"units": "dB"
	},
	"onboard_proc_pulse_cal1_ref_chd": {
		"value": 60.0,
		"description": "Combination of fixed digital gains for the CAL1 Pulse digital chain from ADC converter to TM (it includes ADC, FFTs, beta) measured on-ground",
		"units": "dB"
	},
	"var_dig_gain_lrm_ku_cal1_ref_chd": {
		"value": 1.0,
		"description": "Variable digital gain for the CAL1 LRM Ku digital chain measured on-ground",
		"units": "dB"
	},
	"var_dig_gain_lrm_c_cal1_ref_chd": {
		"value": 1.0,
		"description": "Variable digital gain for the CAL1 LRM C digital chain measured on-ground",
		"units": "dB"
	},
	"var_dig_gain_sar_ku_cal1_ref_chd": {
		"value": 1.0,
		"description": "Variable digital gain for the CAL1 SAR Ku digital chain measured on-ground",
		"units": "dB"
	},
	"var_dig_gain_sar_c_cal1_ref_chd": {
		"value": 1.0,
		"description": "Variable digital gain for the CAL1 SAR C digital chain measured on-ground",
		"units": "dB"
	},
	"var_dig_gain_pulse_cal1_ref_chd": {
		"value": 1.0,
		"description": "Variable digital gain for the CAL1 Pulse digital chain measured on-ground",
		"units": "dB"
	},
	"ins_losses_ground_chd": {
		"value": 1.0,
		"description": "Combination of instrument power losses in the receiving chain (waveguides, etc.)",
	 	"units": "dB"
	 },
	"power_tx_ant_ku_chd": {
		"value": 8.7506,
		"description": "Antenna SSPA RF Peak Transmitted Power in Ku band",
		"units": "dB"
	},
	"power_tx_ant_c_chd": {
		"value": 15.10545,
		"description": "SSPA RF Peak Transmitted Power in C band",
		"units": "dB"
	},
	"uso_nominal_freq_chd": {
		"value": 10000000.0,
		"description": "USO nominal frequency",
		"units": "Hz"
	},
	"alt_freq_multiplier_chd": {
		"value": 39.5,
		"description": "Factor to convert from USO frequency to altimeter frequency",
		"units": null
	},
	"pri_T0_unit_conv_chd": {
		"value": 8.0,
		"description": "Factor that converts PRI to T0 units",
		"units": null
	},
	"cai_cor2_unit_conv_chd": {
		"value": 4096.0,
		"description": "Factor that converts CAI to COR2 units",
		"units": null
	},
	"h0_cor2_unit_conv_chd": {
		"value": 16.0,
		"description": "Factor that converts HO to COR2 units",
		"units": null
	},
	"T0_h0_unit_conv_chd": {
		"value": 64.0,
		"description": "Factor that converts T0 to H0 units",
		"units": null
	},
	"i_sample_start_chd": {
		"value": 22,
		"description": "The RMC ASIC truncates the time domain burst and keeps only the range gates with indexes going from (i_sample_start_chd) to (i_sample_start_chd + N_samples_sar_chd/2-1)",
		"units": null
	},

	"antenna_weights_chd": {
		"value": [1, 1, 1, 1, 1, 1, 1, 1, 1, 1, 1, 1, 1, 1, 1, 1, 1, 1, 1, 1, 1, 1, 1, 1, 1, 1, 1, 1, 1, 1, 1, 1, 1, 1, 1, 1, 1, 1, 1, 1, 1, 1, 1, 1, 1, 1, 1, 1, 1, 1, 1, 1, 1, 1, 1, 1, 1, 1, 1, 1, 1, 1, 1, 1, 1, 1, 1, 1, 1, 1, 1, 1, 1, 1, 1, 1, 1, 1, 1, 1, 1, 1, 1, 1, 1, 1, 1, 1, 1, 1, 1, 1, 1, 1, 1, 1, 1, 1, 1, 1, 1, 1, 1, 1, 1, 1, 1, 1, 1, 1, 1, 1, 1, 1, 1, 1, 1, 1, 1, 1, 1, 1, 1, 1, 1, 1, 1, 1, 1, 1, 1, 1, 1, 1, 1, 1, 1, 1, 1, 1, 1, 1, 1, 1, 1, 1, 1, 1, 1, 1, 1, 1, 1, 1, 1, 1, 1, 1, 1, 1, 1, 1, 1, 1, 1, 1, 1, 1, 1, 1, 1, 1, 1, 1, 1, 1, 1, 1, 1, 1, 1, 1, 1, 1, 1, 1, 1, 1, 1, 1, 1, 1, 1, 1, 1, 1, 1, 1, 1, 1, 1, 1, 1, 1, 1, 1, 1, 1, 1, 1, 1, 1, 1, 1, 1, 1, 1, 1, 1, 1, 1, 1, 1, 1, 1, 1, 1, 1, 1, 1, 1, 1, 1, 1, 1, 1, 1, 1, 1, 1, 1, 1, 1, 1, 1, 1, 1, 1, 1, 1]
	},
	"antenna_angles_chd": {
		"value": [-0.02, -0.019839357429718877, -0.01967871485943775, -0.019518072289156627, -0.019357429718875503, -0.019196787148594376, -0.019036144578313253, -0.018875502008032129, -0.018714859437751006, -0.018554216867469879, -0.018393574297188756, -0.018232931726907632, -0.018072289156626505, -0.017911646586345382, -0.017751004016064258, -0.017590361445783131, -0.017429718875502008, -0.017269076305220885, -0.017108433734939761, -0.016947791164658634, -0.016787148594377511, -0.016626506024096387, -0.01646586345381526, -0.016305220883534137, -0.016144578313253014, -0.01598393574297189, -0.015823293172690763, -0.01566265060240964, -0.015502008032128515, -0.015341365461847389, -0.015180722891566266, -0.015020080321285141, -0.014859437751004016, -0.014698795180722892, -0.014538152610441769, -0.014377510040160642, -0.014216867469879518, -0.014056224899598395, -0.01389558232931727, -0.013734939759036145, -0.013574297188755021, -0.013413654618473896, -0.013253012048192771, -0.013092369477911647, -0.012931726907630522, -0.012771084337349397, -0.012610441767068273, -0.01244979919678715, -0.012289156626506025, -0.0121285140562249, -0.011967871485943776, -0.011807228915662651, -0.011646586345381526, -0.011485943775100402, -0.011325301204819277, -0.011164658634538152, -0.011004016064257029, -0.010843373493975903, -0.01068273092369478, -0.010522088353413655, -0.01036144578313253, -0.010200803212851406, -0.010040160642570281, -0.0098795180722891576, -0.0097188755020080324, -0.0095582329317269073, -0.0093975903614457838, -0.0092369477911646587, -0.0090763052208835352, -0.00891566265060241, -0.0087550200803212849, -0.0085943775100401614, -0.0084337349397590362, -0.0082730923694779128, -0.0081124497991967876, -0.0079518072289156624, -0.007791164658634539, -0.0076305220883534138, -0.0074698795180722886, -0.0073092369477911652, -0.00714859437751004, -0.0069879518072289166, -0.0068273092369477914, -0.0066666666666666662, -0.0065060240963855428, -0.0063453815261044176, -0.0061847389558232942, -0.006024096385542169, -0.0058634538152610438, -0.0057028112449799204, -0.0055421686746987952, -0.0053815261044176717, -0.0052208835341365466, -0.0050602409638554214, -0.004899598393574298, -0.0047389558232931728, -0.0045783132530120493, -0.0044176706827309242, -0.004257028112449799, -0.0040963855421686755, -0.0039357429718875521, -0.0037751004016064252, -0.0036144578313253017, -0.0034538152610441783, -0.0032931726907630514, -0.0031325301204819279, -0.0029718875502008045, -0.0028112449799196776, -0.0026506024096385541, -0.0024899598393574307, -0.0023293172690763038, -0.0021686746987951804, -0.0020080321285140569, -0.0018473895582329335, -0.0016867469879518066, -0.0015261044176706831, -0.0013654618473895597, -0.0012048192771084328, -0.0010441767068273093, -0.00088353413654618587, -0.00072289156626505896, -0.00056224899598393552, -0.00040160642570281208, -0.00024096385542168863, -8.0321285140561721e-05, 8.0321285140561721e-05, 0.00024096385542168516, 0.00040160642570281208, 0.00056224899598393552, 0.00072289156626505896, 0.00088353413654618587, 0.0010441767068273093, 0.0012048192771084328, 0.0013654618473895597, 0.0015261044176706831, 0.0016867469879518066, 0.00184738955823293, 0.0020080321285140569, 0.0021686746987951804, 0.0023293172690763038, 0.0024899598393574307, 0.0026506024096385541, 0.0028112449799196776, 0.0029718875502008045, 0.0031325301204819279, 0.0032931726907630514, 0.0034538152610441748, 0.0036144578313253017, 0.0037751004016064252, 0.0039357429718875486, 0.0040963855421686755, 0.004257028112449799, 0.0044176706827309224, 0.0045783132530120493, 0.0047389558232931728, 0.0048995983935742962, 0.0050602409638554231, 0.0052208835341365466, 0.00538152610441767, 0.0055421686746987935, 0.0057028112449799204, 0.0058634538152610438, 0.0060240963855421673, 0.0061847389558232942, 0.0063453815261044176, 0.0065060240963855411, 0.006666666666666668, 0.0068273092369477914, 0.0069879518072289148, 0.0071485943775100383, 0.0073092369477911652, 0.0074698795180722886, 0.0076305220883534121, 0.007791164658634539, 0.0079518072289156624, 0.0081124497991967859, 0.0082730923694779128, 0.0084337349397590362, 0.0085943775100401597, 0.0087550200803212866, 0.00891566265060241, 0.0090763052208835335, 0.0092369477911646569, 0.0093975903614457838, 0.0095582329317269073, 0.0097188755020080307, 0.0098795180722891576, 0.010040160642570281, 0.010200803212851405, 0.010361445783132531, 0.010522088353413655, 0.010682730923694778, 0.010843373493975902, 0.011004016064257029, 0.011164658634538152, 0.011325301204819279, 0.011485943775100402, 0.011646586345381526, 0.011807228915662649, 0.011967871485943773, 0.012128514056224896, 0.012289156626506027, 0.01244979919678715, 0.012610441767068273, 0.012771084337349397, 0.01293172690763052, 0.013092369477911644, 0.013253012048192774, 0.013413654618473898, 0.013574297188755021, 0.013734939759036145, 0.013895582329317268, 0.014056224899598391, 0.014216867469879515, 0.014377510040160645, 0.014538152610441769, 0.014698795180722892, 0.014859437751004016, 0.015020080321285139, 0.015180722891566262, 0.015341365461847393, 0.015502008032128516, 0.01566265060240964, 0.015823293172690763, 0.015983935742971887, 0.01614457831325301, 0.016305220883534133, 0.016465863453815264, 0.016626506024096387, 0.016787148594377511, 0.016947791164658634, 0.017108433734939758, 0.017269076305220881, 0.017429718875502005, 0.017590361445783135, 0.017751004016064258, 0.017911646586345382, 0.018072289156626505, 0.018232931726907629, 0.018393574297188752, 0.018554216867469882, 0.018714859437751006, 0.018875502008032129, 0.019036144578313253, 0.019196787148594376, 0.0193574297188755, 0.019518072289156623, 0.019678714859437754, 0.019839357429718877, 0.02]
	},
	"antenna_angles_spacing_chd": {
		"value": 0.00016
	},
    "brf_sar_chd": {
        "value": 2.564673
    },
    "prf_sar_chd": {
        "value": 1.42755658
    }
}